digraph Tree {
node [shape=box, fontname="helvetica"] ;
edge [fontname="helvetica"] ;
0 [label="RM <= 6.941\nsquared_error = 86.846\nsamples = 404\nvalue = 22.733"] ;
1 [label="LSTAT <= 14.4\nsquared_error = 38.314\nsamples = 343\nvalue = 19.979"] ;
0 -> 1 [labeldistance=2.5, labelangle=45, headlabel="True"] ;
2 [label="LSTAT <= 7.195\nsquared_error = 26.242\nsamples = 208\nvalue = 23.126"] ;
1 -> 2 ;
3 [label="DIS <= 1.485\nsquared_error = 32.252\nsamples = 53\nvalue = 27.313"] ;
2 -> 3 ;
4 [label="squared_error = 0.0\nsamples = 2\nvalue = 50.0"] ;
3 -> 4 ;
5 [label="RM <= 6.531\nsquared_error = 12.541\nsamples = 51\nvalue = 26.424"] ;
3 -> 5 ;
6 [label="squared_error = 4.07\nsamples = 24\nvalue = 24.062"] ;
5 -> 6 ;
7 [label="squared_error = 10.712\nsamples = 27\nvalue = 28.522"] ;
5 -> 7 ;
8 [label="DIS <= 1.227\nsquared_error = 16.141\nsamples = 155\nvalue = 21.694"] ;
2 -> 8 ;
9 [label="squared_error = 0.0\nsamples = 1\nvalue = 50.0"] ;
8 -> 9 ;
10 [label="TAX <= 222.5\nsquared_error = 11.01\nsamples = 154\nvalue = 21.51"] ;
8 -> 10 ;
11 [label="squared_error = 21.434\nsamples = 5\nvalue = 28.52"] ;
10 -> 11 ;
12 [label="squared_error = 8.956\nsamples = 149\nvalue = 21.275"] ;
10 -> 12 ;
13 [label="NOX <= 0.607\nsquared_error = 18.154\nsamples = 135\nvalue = 15.131"] ;
1 -> 13 ;
14 [label="CRIM <= 0.554\nsquared_error = 12.14\nsamples = 53\nvalue = 18.24"] ;
13 -> 14 ;
15 [label="RM <= 6.615\nsquared_error = 10.058\nsamples = 31\nvalue = 19.835"] ;
14 -> 15 ;
16 [label="squared_error = 8.37\nsamples = 30\nvalue = 19.58"] ;
15 -> 16 ;
17 [label="squared_error = -0.0\nsamples = 1\nvalue = 27.5"] ;
15 -> 17 ;
18 [label="INDUS <= 13.12\nsquared_error = 6.428\nsamples = 22\nvalue = 15.991"] ;
14 -> 18 ;
19 [label="squared_error = 2.159\nsamples = 11\nvalue = 14.455"] ;
18 -> 19 ;
20 [label="squared_error = 5.977\nsamples = 11\nvalue = 17.527"] ;
18 -> 20 ;
21 [label="CRIM <= 11.486\nsquared_error = 11.759\nsamples = 82\nvalue = 13.122"] ;
13 -> 21 ;
22 [label="LSTAT <= 18.93\nsquared_error = 8.003\nsamples = 61\nvalue = 14.405"] ;
21 -> 22 ;
23 [label="squared_error = 3.433\nsamples = 36\nvalue = 15.797"] ;
22 -> 23 ;
24 [label="squared_error = 7.772\nsamples = 25\nvalue = 12.4"] ;
22 -> 24 ;
25 [label="NOX <= 0.675\nsquared_error = 3.999\nsamples = 21\nvalue = 9.395"] ;
21 -> 25 ;
26 [label="squared_error = 0.607\nsamples = 4\nvalue = 11.975"] ;
25 -> 26 ;
27 [label="squared_error = 2.862\nsamples = 17\nvalue = 8.788"] ;
25 -> 27 ;
28 [label="RM <= 7.437\nsquared_error = 77.265\nsamples = 61\nvalue = 38.22"] ;
0 -> 28 [labeldistance=2.5, labelangle=-45, headlabel="False"] ;
29 [label="NOX <= 0.659\nsquared_error = 47.99\nsamples = 35\nvalue = 32.663"] ;
28 -> 29 ;
30 [label="DIS <= 1.886\nsquared_error = 17.417\nsamples = 32\nvalue = 34.375"] ;
29 -> 30 ;
31 [label="PTRATIO <= 17.45\nsquared_error = 18.923\nsamples = 2\nvalue = 45.65"] ;
30 -> 31 ;
32 [label="squared_error = 0.0\nsamples = 1\nvalue = 41.3"] ;
31 -> 32 ;
33 [label="squared_error = 0.0\nsamples = 1\nvalue = 50.0"] ;
31 -> 33 ;
34 [label="RAD <= 7.5\nsquared_error = 8.276\nsamples = 30\nvalue = 33.623"] ;
30 -> 34 ;
35 [label="squared_error = 3.471\nsamples = 26\nvalue = 34.442"] ;
34 -> 35 ;
36 [label="squared_error = 6.815\nsamples = 4\nvalue = 28.3"] ;
34 -> 36 ;
37 [label="CRIM <= 54.293\nsquared_error = 9.307\nsamples = 3\nvalue = 14.4"] ;
29 -> 37 ;
38 [label="LSTAT <= 15.09\nsquared_error = 1.96\nsamples = 2\nvalue = 16.4"] ;
37 -> 38 ;
39 [label="squared_error = 0.0\nsamples = 1\nvalue = 15.0"] ;
38 -> 39 ;
40 [label="squared_error = 0.0\nsamples = 1\nvalue = 17.8"] ;
38 -> 40 ;
41 [label="squared_error = 0.0\nsamples = 1\nvalue = 10.4"] ;
37 -> 41 ;
42 [label="CRIM <= 0.577\nsquared_error = 19.152\nsamples = 26\nvalue = 45.7"] ;
28 -> 42 ;
43 [label="ZN <= 86.25\nsquared_error = 17.549\nsamples = 19\nvalue = 44.179"] ;
42 -> 43 ;
44 [label="B <= 387.345\nsquared_error = 12.838\nsamples = 14\nvalue = 42.636"] ;
43 -> 44 ;
45 [label="squared_error = 4.078\nsamples = 6\nvalue = 45.483"] ;
44 -> 45 ;
46 [label="squared_error = 8.765\nsamples = 8\nvalue = 40.5"] ;
44 -> 46 ;
47 [label="NOX <= 0.397\nsquared_error = 5.4\nsamples = 5\nvalue = 48.5"] ;
43 -> 47 ;
48 [label="squared_error = 0.0\nsamples = 1\nvalue = 44.0"] ;
47 -> 48 ;
49 [label="squared_error = 0.422\nsamples = 4\nvalue = 49.625"] ;
47 -> 49 ;
50 [label="CRIM <= inf\nsquared_error = 0.176\nsamples = 7\nvalue = 49.829"] ;
42 -> 50 ;
51 [label="squared_error = 0.0\nsamples = 6\nvalue = 50.0"] ;
50 -> 51 ;
52 [label="squared_error = -0.0\nsamples = 1\nvalue = 48.8"] ;
50 -> 52 ;
}